8 10
</s> 0.040027 0.044194 -0.038303 -0.032780 0.013666 0.030211 0.009409 0.002113 -0.036035 0.022185 
a -0.043564 0.012495 -0.007513 -0.009572 -0.033157 -0.018822 0.025793 0.030254 0.029691 0.015974 
b 0.015448 -0.038026 -0.040958 0.049696 0.038013 0.030901 -0.006039 0.040157 -0.004950 0.007347 
c -0.001492 -0.029832 0.013123 -0.013374 -0.038254 0.047542 0.043793 -0.010951 -0.002261 0.005092 
d -0.036377 -0.040071 0.045547 0.000630 -0.025824 -0.030421 -0.030765 0.016969 0.002014 0.013310 
e -0.042136 -0.038078 -0.001300 0.011436 0.025497 -0.031700 0.040796 0.009270 0.011197 -0.006084 
f 0.029865 -0.022878 -0.020975 0.021584 -0.007532 0.010307 0.018045 -0.040886 -0.019830 0.029137 
g 0.042319 0.039320 -0.030469 -0.021077 -0.009091 0.020015 -0.037885 0.029979 0.027878 -0.015990 
